<?xml version="1.0"?>
<opencv_storage>
<stage0>
  <maxWeakCount>5</maxWeakCount>
  <stageThreshold>-1.4346542358398438e+00</stageThreshold>
  <weakClassifiers>
    <_>
      <internalNodes>
        0 -1 2899913 -3.8577839732170105e-02</internalNodes>
      <leafValues>
        9.2585271596908569e-01 -8.6615186929702759e-01</leafValues></_>
    <_>
      <internalNodes>
        0 -1 2587240 -2.6378622278571129e-02</internalNodes>
      <leafValues>
        8.7697517871856689e-01 -6.7130076885223389e-01</leafValues></_>
    <_>
      <internalNodes>
        0 -1 2728546 -7.3152616620063782e-02</internalNodes>
      <leafValues>
        9.1511088609695435e-01 -3.1976857781410217e-01</leafValues></_>
    <_>
      <internalNodes>
        0 -1 3766060 9.0004168450832367e-03</internalNodes>
      <leafValues>
        -5.0649470090866089e-01 7.6591747999191284e-01</leafValues></_>
    <_>
      <internalNodes>
        0 -1 3065648 -4.9474202096462250e-02</internalNodes>
      <leafValues>
        9.5544439554214478e-01 -3.4335052967071533e-01</leafValues></_></weakClassifiers></stage0>
</opencv_storage>
