<?xml version="1.0"?>
<opencv_storage>
<stage1>
  <maxWeakCount>5</maxWeakCount>
  <stageThreshold>-1.0967810153961182e+00</stageThreshold>
  <weakClassifiers>
    <_>
      <internalNodes>
        0 -1 2648366 -6.7610487341880798e-02</internalNodes>
      <leafValues>
        8.7500000000000000e-01 -6.2740385532379150e-01</leafValues></_>
    <_>
      <internalNodes>
        0 -1 2922255 -2.2999316453933716e-02</internalNodes>
      <leafValues>
        7.3507428169250488e-01 -4.5529550313949585e-01</leafValues></_>
    <_>
      <internalNodes>
        0 -1 3429545 -1.3161284849047661e-02</internalNodes>
      <leafValues>
        6.6197222471237183e-01 -3.3719548583030701e-01</leafValues></_>
    <_>
      <internalNodes>
        0 -1 325284 -3.0772825703024864e-02</internalNodes>
      <leafValues>
        8.0173707008361816e-01 -3.2543134689331055e-01</leafValues></_>
    <_>
      <internalNodes>
        0 -1 4122562 -1.7032304778695107e-02</internalNodes>
      <leafValues>
        6.4854514598846436e-01 -3.1630870699882507e-01</leafValues></_></weakClassifiers></stage1>
</opencv_storage>
